HiddenLayer Weights 
-0.09058960585884324 1.4400684876608076 0.028215029406225663 -0.4309902822944921 -1.2413999847444488 1.623030376579884 1.5463852734328274 0.6903696478230386 

-1.1313349625509197 0.27105704151302773 0.8074247079960287 0.6829504972864128 0.7032304812269424 -1.4027814731274864 -1.7250342387834225 1.7387489411029922 

-0.7102354866466588 -0.38252236082580415 1.1446148653511212 0.5270258139847573 -0.5331791024827355 -0.10876553874222386 -0.7324447732221743 -1.9040508078365879 

0.7966894671681413 0.7560244855845882 1.904311518163089 -1.6902956445873734 -1.4744128859320662 -0.9284221488432398 1.3708252242252645 -1.5953611071930949 

-1.2609865415353132 -0.7131745856826459 0.72091086454872 0.8690482780876295 1.2580647658240396 -0.9275343518301132 -0.6830711775903963 0.07884507263480164 

-1.1573826876389786 -0.19041106189556745 0.47065536734827135 -0.00550698743709035 -0.0947231454134203 0.9012759310047688 1.2958324459893422 0.7100915906898815 

0.21946022381920102 1.1776499317999132 -1.5056336546599765 -0.24968423288508076 -1.0091027141171904 -0.4149622185360124 -0.9953732481230797 0.7673216091804443 

0.18564572268503396 0.907208235194622 1.274819431131977 -0.36864378589193736 1.1516717887689698 -1.563236975008758 -0.6217385159356792 1.9161880004035103 

-0.6591434002613752 0.31987479459988405 -1.7280997847244146 0.37914669407256857 0.3311847153416237 1.719756963382157 -1.7951531043022115 -1.7141963318064841 

-1.6316108080766292 0.9979536447846106 1.617464609616403 0.28274486955880873 0.2945919164639374 -1.213028471957687 0.8265738262809128 -0.9849330555426614 


OutputLayer Weights 
-1.0156439402708057 0.1130354728602689 -0.6397428233531737 -1.2152507077905499 1.3944831133040312 1.7616975896635036 0.11862419288804248 1.3846484881232974 -1.416491273383377 1.3001913080362824 

